digraph Tree {
0 [label="X[6] <= 10.0622\nentropy = 2.52369751651\nsamples = 4130", shape="box"] ;
1 [label="X[13] <= 0.3026\nentropy = 1.73511464199\nsamples = 2745", shape="box"] ;
0 -> 1 ;
2 [label="X[16] <= 0.0004\nentropy = 0.456998503626\nsamples = 1987", shape="box"] ;
1 -> 2 ;
3 [label="X[5] <= 86.1019\nentropy = 0.877034818751\nsamples = 145", shape="box"] ;
2 -> 3 ;
4 [label="entropy = 0.0000\nsamples = 43\nvalue = [ 43.   0.   0.   0.   0.   0.   0.   0.   0.   0.   0.   0.]", shape="box"] ;
3 -> 4 ;
5 [label="entropy = 0.0000\nsamples = 102\nvalue = [   0.    0.    0.    0.    0.    0.    0.  102.    0.    0.    0.    0.]", shape="box"] ;
3 -> 5 ;
6 [label="X[9] <= 0.5075\nentropy = 0.0316040314811\nsamples = 1842", shape="box"] ;
2 -> 6 ;
7 [label="entropy = 0.0000\nsamples = 3\nvalue = [ 3.  0.  0.  0.  0.  0.  0.  0.  0.  0.  0.  0.]", shape="box"] ;
6 -> 7 ;
8 [label="X[14] <= 0.2759\nentropy = 0.0174571956192\nsamples = 1839", shape="box"] ;
6 -> 8 ;
9 [label="entropy = 0.0000\nsamples = 1\nvalue = [ 1.  0.  0.  0.  0.  0.  0.  0.  0.  0.  0.  0.]", shape="box"] ;
8 -> 9 ;
10 [label="X[6] <= 1.9522\nentropy = 0.0122805559094\nsamples = 1838", shape="box"] ;
8 -> 10 ;
11 [label="entropy = 0.0000\nsamples = 1\nvalue = [ 1.  0.  0.  0.  0.  0.  0.  0.  0.  0.  0.  0.]", shape="box"] ;
10 -> 11 ;
12 [label="X[16] <= 1.3014\nentropy = 0.00668777256603\nsamples = 1837", shape="box"] ;
10 -> 12 ;
13 [label="entropy = 0.0000\nsamples = 1836\nvalue = [    0.  1836.     0.     0.     0.     0.     0.     0.     0.     0.
     0.     0.]", shape="box"] ;
12 -> 13 ;
14 [label="entropy = 0.0000\nsamples = 1\nvalue = [ 1.  0.  0.  0.  0.  0.  0.  0.  0.  0.  0.  0.]", shape="box"] ;
12 -> 14 ;
15 [label="X[7] <= 11.4959\nentropy = 2.12931042976\nsamples = 758", shape="box"] ;
1 -> 15 ;
16 [label="X[4] <= 51.2557\nentropy = 0.464174193832\nsamples = 396", shape="box"] ;
15 -> 16 ;
17 [label="entropy = 0.0000\nsamples = 34\nvalue = [ 34.   0.   0.   0.   0.   0.   0.   0.   0.   0.   0.   0.]", shape="box"] ;
16 -> 17 ;
18 [label="X[10] <= 478.5989\nentropy = 0.10511882981\nsamples = 362", shape="box"] ;
16 -> 18 ;
19 [label="entropy = 0.0000\nsamples = 357\nvalue = [   0.    0.    0.    0.  357.    0.    0.    0.    0.    0.    0.    0.]", shape="box"] ;
18 -> 19 ;
20 [label="entropy = 0.0000\nsamples = 5\nvalue = [ 5.  0.  0.  0.  0.  0.  0.  0.  0.  0.  0.  0.]", shape="box"] ;
18 -> 20 ;
21 [label="X[8] <= 12.2424\nentropy = 1.92204270982\nsamples = 362", shape="box"] ;
15 -> 21 ;
22 [label="X[0] <= 17.5000\nentropy = 0.811278124459\nsamples = 204", shape="box"] ;
21 -> 22 ;
23 [label="entropy = 0.0000\nsamples = 153\nvalue = [   0.    0.    0.    0.    0.    0.  153.    0.    0.    0.    0.    0.]", shape="box"] ;
22 -> 23 ;
24 [label="entropy = 0.0000\nsamples = 51\nvalue = [  0.   0.   0.   0.   0.   0.   0.   0.   0.  51.   0.   0.]", shape="box"] ;
22 -> 24 ;
25 [label="X[17] <= 16.9058\nentropy = 1.09181417985\nsamples = 158", shape="box"] ;
21 -> 25 ;
26 [label="entropy = 0.0000\nsamples = 102\nvalue = [   0.    0.    0.    0.    0.  102.    0.    0.    0.    0.    0.    0.]", shape="box"] ;
25 -> 26 ;
27 [label="X[3] <= 26.0034\nentropy = 0.434081120004\nsamples = 56", shape="box"] ;
25 -> 27 ;
28 [label="entropy = 0.0000\nsamples = 5\nvalue = [ 5.  0.  0.  0.  0.  0.  0.  0.  0.  0.  0.  0.]", shape="box"] ;
27 -> 28 ;
29 [label="entropy = 0.0000\nsamples = 51\nvalue = [  0.   0.   0.   0.   0.   0.   0.   0.  51.   0.   0.   0.]", shape="box"] ;
27 -> 29 ;
30 [label="X[19] <= 0.8872\nentropy = 1.37146428869\nsamples = 1385", shape="box"] ;
0 -> 30 ;
31 [label="entropy = 0.0000\nsamples = 816\nvalue = [   0.    0.  816.    0.    0.    0.    0.    0.    0.    0.    0.    0.]", shape="box"] ;
30 -> 31 ;
32 [label="X[9] <= 0.6983\nentropy = 0.960323168303\nsamples = 569", shape="box"] ;
30 -> 32 ;
33 [label="entropy = 0.0000\nsamples = 459\nvalue = [   0.    0.    0.  459.    0.    0.    0.    0.    0.    0.    0.    0.]", shape="box"] ;
32 -> 33 ;
34 [label="X[14] <= 0.1045\nentropy = 1.30329257824\nsamples = 110", shape="box"] ;
32 -> 34 ;
35 [label="entropy = 0.0000\nsamples = 51\nvalue = [  0.   0.   0.   0.   0.   0.   0.   0.   0.   0.   0.  51.]", shape="box"] ;
34 -> 35 ;
36 [label="X[7] <= 14.9905\nentropy = 0.572580465624\nsamples = 59", shape="box"] ;
34 -> 36 ;
37 [label="entropy = 0.0000\nsamples = 8\nvalue = [ 8.  0.  0.  0.  0.  0.  0.  0.  0.  0.  0.  0.]", shape="box"] ;
36 -> 37 ;
38 [label="entropy = 0.0000\nsamples = 51\nvalue = [  0.   0.   0.   0.   0.   0.   0.   0.   0.   0.  51.   0.]", shape="box"] ;
36 -> 38 ;
}