digraph Tree {
0 [label="X[8] <= 8.5414\nentropy = 2.08688966084\nsamples = 3722", shape="box"] ;
1 [label="X[7] <= 3.0137\nentropy = 0.270291386648\nsamples = 2032", shape="box"] ;
0 -> 1 ;
2 [label="entropy = 0.0000\nsamples = 74\nvalue = [ 74.   0.   0.   0.   0.   0.   0.   0.]", shape="box"] ;
1 -> 2 ;
3 [label="X[8] <= 4.0479\nentropy = 0.0822118342349\nsamples = 1958", shape="box"] ;
1 -> 3 ;
4 [label="entropy = 0.0000\nsamples = 14\nvalue = [ 14.   0.   0.   0.   0.   0.   0.   0.]", shape="box"] ;
3 -> 4 ;
5 [label="X[17] <= 29.9950\nentropy = 0.0301861616311\nsamples = 1944", shape="box"] ;
3 -> 5 ;
6 [label="entropy = 0.0000\nsamples = 1938\nvalue = [    0.  1938.     0.     0.     0.     0.     0.     0.]", shape="box"] ;
5 -> 6 ;
7 [label="entropy = 0.0000\nsamples = 6\nvalue = [ 6.  0.  0.  0.  0.  0.  0.  0.]", shape="box"] ;
5 -> 7 ;
8 [label="X[13] <= 0.1074\nentropy = 2.10388646433\nsamples = 1690", shape="box"] ;
0 -> 8 ;
9 [label="X[13] <= 0.0406\nentropy = 0.609655087187\nsamples = 823", shape="box"] ;
8 -> 9 ;
10 [label="X[4] <= 62.5173\nentropy = 0.34397451436\nsamples = 109", shape="box"] ;
9 -> 10 ;
11 [label="entropy = 0.0000\nsamples = 7\nvalue = [ 7.  0.  0.  0.  0.  0.  0.  0.]", shape="box"] ;
10 -> 11 ;
12 [label="entropy = 0.0000\nsamples = 102\nvalue = [   0.    0.    0.    0.    0.    0.    0.  102.]", shape="box"] ;
10 -> 12 ;
13 [label="entropy = 0.0000\nsamples = 714\nvalue = [   0.    0.  714.    0.    0.    0.    0.    0.]", shape="box"] ;
9 -> 13 ;
14 [label="X[8] <= 13.0156\nentropy = 1.57398896165\nsamples = 867", shape="box"] ;
8 -> 14 ;
15 [label="X[6] <= 19.0297\nentropy = 1.44881563573\nsamples = 357", shape="box"] ;
14 -> 15 ;
16 [label="X[10] <= 494.7734\nentropy = 0.811278124459\nsamples = 204", shape="box"] ;
15 -> 16 ;
17 [label="entropy = 0.0000\nsamples = 153\nvalue = [   0.    0.    0.    0.  153.    0.    0.    0.]", shape="box"] ;
16 -> 17 ;
18 [label="entropy = 0.0000\nsamples = 51\nvalue = [  0.   0.   0.   0.   0.   0.  51.   0.]", shape="box"] ;
16 -> 18 ;
19 [label="entropy = 0.0000\nsamples = 153\nvalue = [   0.    0.    0.    0.    0.  153.    0.    0.]", shape="box"] ;
15 -> 19 ;
20 [label="entropy = 0.0000\nsamples = 510\nvalue = [   0.    0.    0.  510.    0.    0.    0.    0.]", shape="box"] ;
14 -> 20 ;
}