digraph Tree {
0 [label="X[10] <= 3328.9250\nentropy = 3.08139120069\nsamples = 1863", shape="box"] ;
1 [label="X[19] <= 2.2965\nentropy = 2.09762080701\nsamples = 1090", shape="box"] ;
0 -> 1 ;
2 [label="X[8] <= 45.3790\nentropy = 2.53383191008\nsamples = 446", shape="box"] ;
1 -> 2 ;
3 [label="X[4] <= 97.5842\nentropy = 1.96529867644\nsamples = 293", shape="box"] ;
2 -> 3 ;
4 [label="X[11] <= 0.8748\nentropy = 1.5672031258\nsamples = 235", shape="box"] ;
3 -> 4 ;
5 [label="X[6] <= 4.9968\nentropy = 1.53480593668\nsamples = 200", shape="box"] ;
4 -> 5 ;
6 [label="X[17] <= 4.8889\nentropy = 1.49079846169\nsamples = 176", shape="box"] ;
5 -> 6 ;
7 [label="X[7] <= 0.5000\nentropy = 1.31825332848\nsamples = 101", shape="box"] ;
6 -> 7 ;
8 [label="X[10] <= 12.6487\nentropy = 1.27508279113\nsamples = 76", shape="box"] ;
7 -> 8 ;
9 [label="X[4] <= 3.5000\nentropy = 1.10590086726\nsamples = 55", shape="box"] ;
8 -> 9 ;
10 [label="X[1] <= 2.5000\nentropy = 0.822404225955\nsamples = 35", shape="box"] ;
9 -> 10 ;
11 [label="X[14] <= 0.8750\nentropy = 0.869137580613\nsamples = 31", shape="box"] ;
10 -> 11 ;
12 [label="X[14] <= 0.7084\nentropy = 0.961236604723\nsamples = 13", shape="box"] ;
11 -> 12 ;
13 [label="X[14] <= 0.6111\nentropy = 0.764204506509\nsamples = 9", shape="box"] ;
12 -> 13 ;
14 [label="X[18] <= 0.5000\nentropy = 1.0\nsamples = 4", shape="box"] ;
13 -> 14 ;
15 [label="X[3] <= 0.5000\nentropy = 0.918295834054\nsamples = 3", shape="box"] ;
14 -> 15 ;
16 [label="entropy = 0.0000\nsamples = 2\nvalue = [ 0.  0.  2.  0.  0.  0.  0.  0.  0.  0.  0.  0.  0.]", shape="box"] ;
15 -> 16 ;
17 [label="entropy = 0.0000\nsamples = 1\nvalue = [ 1.  0.  0.  0.  0.  0.  0.  0.  0.  0.  0.  0.  0.]", shape="box"] ;
15 -> 17 ;
18 [label="entropy = 0.0000\nsamples = 1\nvalue = [ 1.  0.  0.  0.  0.  0.  0.  0.  0.  0.  0.  0.  0.]", shape="box"] ;
14 -> 18 ;
19 [label="entropy = 0.0000\nsamples = 5\nvalue = [ 0.  0.  5.  0.  0.  0.  0.  0.  0.  0.  0.  0.  0.]", shape="box"] ;
13 -> 19 ;
20 [label="entropy = 0.8113\nsamples = 4\nvalue = [ 3.  0.  1.  0.  0.  0.  0.  0.  0.  0.  0.  0.  0.]", shape="box"] ;
12 -> 20 ;
21 [label="X[6] <= 1.9992\nentropy = 0.764204506509\nsamples = 18", shape="box"] ;
11 -> 21 ;
22 [label="X[0] <= 1.5000\nentropy = 0.787126586201\nsamples = 17", shape="box"] ;
21 -> 22 ;
23 [label="entropy = 0.8631\nsamples = 7\nvalue = [ 2.  0.  5.  0.  0.  0.  0.  0.  0.  0.  0.  0.  0.]", shape="box"] ;
22 -> 23 ;
24 [label="X[0] <= 2.5000\nentropy = 0.721928094887\nsamples = 10", shape="box"] ;
22 -> 24 ;
25 [label="entropy = 0.6500\nsamples = 6\nvalue = [ 1.  0.  5.  0.  0.  0.  0.  0.  0.  0.  0.  0.  0.]", shape="box"] ;
24 -> 25 ;
26 [label="entropy = 0.8113\nsamples = 4\nvalue = [ 1.  0.  3.  0.  0.  0.  0.  0.  0.  0.  0.  0.  0.]", shape="box"] ;
24 -> 26 ;
27 [label="entropy = 0.0000\nsamples = 1\nvalue = [ 0.  0.  1.  0.  0.  0.  0.  0.  0.  0.  0.  0.  0.]", shape="box"] ;
21 -> 27 ;
28 [label="entropy = 0.0000\nsamples = 4\nvalue = [ 0.  0.  4.  0.  0.  0.  0.  0.  0.  0.  0.  0.  0.]", shape="box"] ;
10 -> 28 ;
29 [label="X[5] <= 24.5000\nentropy = 1.27889790299\nsamples = 20", shape="box"] ;
9 -> 29 ;
30 [label="X[10] <= 6.5000\nentropy = 1.49261406802\nsamples = 14", shape="box"] ;
29 -> 30 ;
31 [label="X[14] <= 0.6217\nentropy = 1.38443150434\nsamples = 12", shape="box"] ;
30 -> 31 ;
32 [label="X[8] <= 4.5000\nentropy = 0.650022421648\nsamples = 6", shape="box"] ;
31 -> 32 ;
33 [label="entropy = 0.0000\nsamples = 1\nvalue = [ 1.  0.  0.  0.  0.  0.  0.  0.  0.  0.  0.  0.  0.]", shape="box"] ;
32 -> 33 ;
34 [label="entropy = 0.0000\nsamples = 5\nvalue = [ 0.  0.  5.  0.  0.  0.  0.  0.  0.  0.  0.  0.  0.]", shape="box"] ;
32 -> 34 ;
35 [label="X[8] <= 4.5000\nentropy = 1.58496250072\nsamples = 6", shape="box"] ;
31 -> 35 ;
36 [label="X[14] <= 0.7691\nentropy = 1.0\nsamples = 4", shape="box"] ;
35 -> 36 ;
37 [label="entropy = 0.0000\nsamples = 1\nvalue = [ 0.  1.  0.  0.  0.  0.  0.  0.  0.  0.  0.  0.  0.]", shape="box"] ;
36 -> 37 ;
38 [label="X[14] <= 0.9566\nentropy = 0.918295834054\nsamples = 3", shape="box"] ;
36 -> 38 ;
39 [label="entropy = 0.0000\nsamples = 2\nvalue = [ 0.  0.  2.  0.  0.  0.  0.  0.  0.  0.  0.  0.  0.]", shape="box"] ;
38 -> 39 ;
40 [label="entropy = 0.0000\nsamples = 1\nvalue = [ 0.  1.  0.  0.  0.  0.  0.  0.  0.  0.  0.  0.  0.]", shape="box"] ;
38 -> 40 ;
41 [label="entropy = 0.0000\nsamples = 2\nvalue = [ 2.  0.  0.  0.  0.  0.  0.  0.  0.  0.  0.  0.  0.]", shape="box"] ;
35 -> 41 ;
42 [label="entropy = 0.0000\nsamples = 2\nvalue = [ 0.  2.  0.  0.  0.  0.  0.  0.  0.  0.  0.  0.  0.]", shape="box"] ;
30 -> 42 ;
43 [label="entropy = 0.0000\nsamples = 6\nvalue = [ 0.  0.  6.  0.  0.  0.  0.  0.  0.  0.  0.  0.  0.]", shape="box"] ;
29 -> 43 ;
44 [label="X[10] <= 45.5000\nentropy = 1.20600269024\nsamples = 21", shape="box"] ;
8 -> 44 ;
45 [label="X[9] <= 1.6936\nentropy = 0.83147438801\nsamples = 19", shape="box"] ;
44 -> 45 ;
46 [label="entropy = 0.0000\nsamples = 2\nvalue = [ 0.  0.  2.  0.  0.  0.  0.  0.  0.  0.  0.  0.  0.]", shape="box"] ;
45 -> 46 ;
47 [label="X[10] <= 17.5000\nentropy = 0.672294817076\nsamples = 17", shape="box"] ;
45 -> 47 ;
48 [label="X[8] <= 16.4948\nentropy = 0.985228136034\nsamples = 7", shape="box"] ;
47 -> 48 ;
49 [label="entropy = 0.0000\nsamples = 4\nvalue = [ 4.  0.  0.  0.  0.  0.  0.  0.  0.  0.  0.  0.  0.]", shape="box"] ;
48 -> 49 ;
50 [label="entropy = 0.0000\nsamples = 3\nvalue = [ 0.  0.  3.  0.  0.  0.  0.  0.  0.  0.  0.  0.  0.]", shape="box"] ;
48 -> 50 ;
51 [label="entropy = 0.0000\nsamples = 10\nvalue = [ 10.   0.   0.   0.   0.   0.   0.   0.   0.   0.   0.   0.   0.]", shape="box"] ;
47 -> 51 ;
52 [label="entropy = 0.0000\nsamples = 2\nvalue = [ 0.  2.  0.  0.  0.  0.  0.  0.  0.  0.  0.  0.  0.]", shape="box"] ;
44 -> 52 ;
53 [label="X[3] <= 3.5000\nentropy = 0.402179190202\nsamples = 25", shape="box"] ;
7 -> 53 ;
54 [label="entropy = 0.0000\nsamples = 22\nvalue = [ 22.   0.   0.   0.   0.   0.   0.   0.   0.   0.   0.   0.   0.]", shape="box"] ;
53 -> 54 ;
55 [label="X[0] <= 12.5000\nentropy = 0.918295834054\nsamples = 3", shape="box"] ;
53 -> 55 ;
56 [label="entropy = 0.0000\nsamples = 2\nvalue = [ 0.  2.  0.  0.  0.  0.  0.  0.  0.  0.  0.  0.  0.]", shape="box"] ;
55 -> 56 ;
57 [label="entropy = 0.0000\nsamples = 1\nvalue = [ 1.  0.  0.  0.  0.  0.  0.  0.  0.  0.  0.  0.  0.]", shape="box"] ;
55 -> 57 ;
58 [label="X[3] <= 9.2033\nentropy = 1.46127119898\nsamples = 75", shape="box"] ;
6 -> 58 ;
59 [label="X[10] <= 85.2454\nentropy = 1.53711157323\nsamples = 60", shape="box"] ;
58 -> 59 ;
60 [label="X[4] <= 7.4587\nentropy = 1.23827858781\nsamples = 31", shape="box"] ;
59 -> 60 ;
61 [label="X[7] <= 1.5000\nentropy = 1.06127812446\nsamples = 8", shape="box"] ;
60 -> 61 ;
62 [label="X[3] <= 0.5000\nentropy = 0.591672778582\nsamples = 7", shape="box"] ;
61 -> 62 ;
63 [label="entropy = 0.0000\nsamples = 1\nvalue = [ 0.  0.  1.  0.  0.  0.  0.  0.  0.  0.  0.  0.  0.]", shape="box"] ;
62 -> 63 ;
64 [label="entropy = 0.0000\nsamples = 6\nvalue = [ 0.  6.  0.  0.  0.  0.  0.  0.  0.  0.  0.  0.  0.]", shape="box"] ;
62 -> 64 ;
65 [label="entropy = 0.0000\nsamples = 1\nvalue = [ 1.  0.  0.  0.  0.  0.  0.  0.  0.  0.  0.  0.  0.]", shape="box"] ;
61 -> 65 ;
66 [label="X[6] <= 2.4083\nentropy = 0.840491401473\nsamples = 23", shape="box"] ;
60 -> 66 ;
67 [label="X[18] <= 2.3594\nentropy = 0.453716339187\nsamples = 21", shape="box"] ;
66 -> 67 ;
68 [label="entropy = 0.0000\nsamples = 15\nvalue = [  0.   0.  15.   0.   0.   0.   0.   0.   0.   0.   0.   0.   0.]", shape="box"] ;
67 -> 68 ;
69 [label="X[12] <= 0.1641\nentropy = 0.918295834054\nsamples = 6", shape="box"] ;
67 -> 69 ;
70 [label="entropy = 0.0000\nsamples = 2\nvalue = [ 2.  0.  0.  0.  0.  0.  0.  0.  0.  0.  0.  0.  0.]", shape="box"] ;
69 -> 70 ;
71 [label="entropy = 0.0000\nsamples = 4\nvalue = [ 0.  0.  4.  0.  0.  0.  0.  0.  0.  0.  0.  0.  0.]", shape="box"] ;
69 -> 71 ;
72 [label="entropy = 0.0000\nsamples = 2\nvalue = [ 0.  2.  0.  0.  0.  0.  0.  0.  0.  0.  0.  0.  0.]", shape="box"] ;
66 -> 72 ;
73 [label="X[4] <= 17.8819\nentropy = 1.34163035888\nsamples = 29", shape="box"] ;
59 -> 73 ;
74 [label="X[10] <= 1018.5000\nentropy = 0.985228136034\nsamples = 14", shape="box"] ;
73 -> 74 ;
75 [label="X[7] <= 5.6335\nentropy = 0.918295834054\nsamples = 12", shape="box"] ;
74 -> 75 ;
76 [label="X[8] <= 7.0000\nentropy = 0.721928094887\nsamples = 10", shape="box"] ;
75 -> 76 ;
77 [label="entropy = 0.0000\nsamples = 7\nvalue = [ 7.  0.  0.  0.  0.  0.  0.  0.  0.  0.  0.  0.  0.]", shape="box"] ;
76 -> 77 ;
78 [label="X[6] <= 3.1057\nentropy = 0.918295834054\nsamples = 3", shape="box"] ;
76 -> 78 ;
79 [label="entropy = 0.0000\nsamples = 1\nvalue = [ 0.  1.  0.  0.  0.  0.  0.  0.  0.  0.  0.  0.  0.]", shape="box"] ;
78 -> 79 ;
80 [label="X[17] <= 7.1983\nentropy = 1.0\nsamples = 2", shape="box"] ;
78 -> 80 ;
81 [label="entropy = 0.0000\nsamples = 1\nvalue = [ 1.  0.  0.  0.  0.  0.  0.  0.  0.  0.  0.  0.  0.]", shape="box"] ;
80 -> 81 ;
82 [label="entropy = 0.0000\nsamples = 1\nvalue = [ 0.  1.  0.  0.  0.  0.  0.  0.  0.  0.  0.  0.  0.]", shape="box"] ;
80 -> 82 ;
83 [label="entropy = 0.0000\nsamples = 2\nvalue = [ 0.  2.  0.  0.  0.  0.  0.  0.  0.  0.  0.  0.  0.]", shape="box"] ;
75 -> 83 ;
84 [label="entropy = 0.0000\nsamples = 2\nvalue = [ 0.  2.  0.  0.  0.  0.  0.  0.  0.  0.  0.  0.  0.]", shape="box"] ;
74 -> 84 ;
85 [label="X[8] <= 10.1839\nentropy = 1.24194603221\nsamples = 15", shape="box"] ;
73 -> 85 ;
86 [label="X[19] <= 0.6263\nentropy = 0.439496986922\nsamples = 11", shape="box"] ;
85 -> 86 ;
87 [label="entropy = 0.0000\nsamples = 1\nvalue = [ 0.  0.  1.  0.  0.  0.  0.  0.  0.  0.  0.  0.  0.]", shape="box"] ;
86 -> 87 ;
88 [label="entropy = 0.0000\nsamples = 10\nvalue = [  0.  10.   0.   0.   0.   0.   0.   0.   0.   0.   0.   0.   0.]", shape="box"] ;
86 -> 88 ;
89 [label="X[14] <= 0.3413\nentropy = 1.0\nsamples = 4", shape="box"] ;
85 -> 89 ;
90 [label="entropy = 0.0000\nsamples = 2\nvalue = [ 2.  0.  0.  0.  0.  0.  0.  0.  0.  0.  0.  0.  0.]", shape="box"] ;
89 -> 90 ;
91 [label="entropy = 0.0000\nsamples = 2\nvalue = [ 0.  0.  2.  0.  0.  0.  0.  0.  0.  0.  0.  0.  0.]", shape="box"] ;
89 -> 91 ;
92 [label="entropy = 0.0000\nsamples = 15\nvalue = [  0.   0.  15.   0.   0.   0.   0.   0.   0.   0.   0.   0.   0.]", shape="box"] ;
58 -> 92 ;
93 [label="X[14] <= 0.3450\nentropy = 0.994984828186\nsamples = 24", shape="box"] ;
5 -> 93 ;
94 [label="entropy = 0.0000\nsamples = 6\nvalue = [ 0.  6.  0.  0.  0.  0.  0.  0.  0.  0.  0.  0.  0.]", shape="box"] ;
93 -> 94 ;
95 [label="X[10] <= 5.5000\nentropy = 0.852405178649\nsamples = 18", shape="box"] ;
93 -> 95 ;
96 [label="entropy = 0.0000\nsamples = 5\nvalue = [ 5.  0.  0.  0.  0.  0.  0.  0.  0.  0.  0.  0.  0.]", shape="box"] ;
95 -> 96 ;
97 [label="X[18] <= 1.5000\nentropy = 0.961236604723\nsamples = 13", shape="box"] ;
95 -> 97 ;
98 [label="X[14] <= 0.6000\nentropy = 0.991076059838\nsamples = 9", shape="box"] ;
97 -> 98 ;
99 [label="entropy = 0.0000\nsamples = 3\nvalue = [ 0.  3.  0.  0.  0.  0.  0.  0.  0.  0.  0.  0.  0.]", shape="box"] ;
98 -> 99 ;
100 [label="X[1] <= 4.5000\nentropy = 0.918295834054\nsamples = 6", shape="box"] ;
98 -> 100 ;
101 [label="X[10] <= 12.5000\nentropy = 0.721928094887\nsamples = 5", shape="box"] ;
100 -> 101 ;
102 [label="entropy = 0.0000\nsamples = 3\nvalue = [ 3.  0.  0.  0.  0.  0.  0.  0.  0.  0.  0.  0.  0.]", shape="box"] ;
101 -> 102 ;
103 [label="X[6] <= 16.3629\nentropy = 1.0\nsamples = 2", shape="box"] ;
101 -> 103 ;
104 [label="entropy = 0.0000\nsamples = 1\nvalue = [ 0.  1.  0.  0.  0.  0.  0.  0.  0.  0.  0.  0.  0.]", shape="box"] ;
103 -> 104 ;
105 [label="entropy = 0.0000\nsamples = 1\nvalue = [ 1.  0.  0.  0.  0.  0.  0.  0.  0.  0.  0.  0.  0.]", shape="box"] ;
103 -> 105 ;
106 [label="entropy = 0.0000\nsamples = 1\nvalue = [ 0.  1.  0.  0.  0.  0.  0.  0.  0.  0.  0.  0.  0.]", shape="box"] ;
100 -> 106 ;
107 [label="entropy = 0.0000\nsamples = 4\nvalue = [ 4.  0.  0.  0.  0.  0.  0.  0.  0.  0.  0.  0.  0.]", shape="box"] ;
97 -> 107 ;
108 [label="X[4] <= 9.5000\nentropy = 0.994693795361\nsamples = 35", shape="box"] ;
4 -> 108 ;
109 [label="entropy = 0.0000\nsamples = 6\nvalue = [ 0.  6.  0.  0.  0.  0.  0.  0.  0.  0.  0.  0.  0.]", shape="box"] ;
108 -> 109 ;
110 [label="X[1] <= 2.5000\nentropy = 0.992266638719\nsamples = 29", shape="box"] ;
108 -> 110 ;
111 [label="X[14] <= 0.4833\nentropy = 0.998845535995\nsamples = 25", shape="box"] ;
110 -> 111 ;
112 [label="X[18] <= 3.8264\nentropy = 0.985228136034\nsamples = 21", shape="box"] ;
111 -> 112 ;
113 [label="X[3] <= 15.0000\nentropy = 0.873981048127\nsamples = 17", shape="box"] ;
112 -> 113 ;
114 [label="X[12] <= 2.3515\nentropy = 0.721928094887\nsamples = 15", shape="box"] ;
113 -> 114 ;
115 [label="X[12] <= 1.5000\nentropy = 0.918295834054\nsamples = 9", shape="box"] ;
114 -> 115 ;
116 [label="entropy = 0.0000\nsamples = 4\nvalue = [ 4.  0.  0.  0.  0.  0.  0.  0.  0.  0.  0.  0.  0.]", shape="box"] ;
115 -> 116 ;
117 [label="X[19] <= 0.9877\nentropy = 0.970950594455\nsamples = 5", shape="box"] ;
115 -> 117 ;
118 [label="entropy = 0.0000\nsamples = 3\nvalue = [ 0.  3.  0.  0.  0.  0.  0.  0.  0.  0.  0.  0.  0.]", shape="box"] ;
117 -> 118 ;
119 [label="entropy = 0.0000\nsamples = 2\nvalue = [ 2.  0.  0.  0.  0.  0.  0.  0.  0.  0.  0.  0.  0.]", shape="box"] ;
117 -> 119 ;
120 [label="entropy = 0.0000\nsamples = 6\nvalue = [ 6.  0.  0.  0.  0.  0.  0.  0.  0.  0.  0.  0.  0.]", shape="box"] ;
114 -> 120 ;
121 [label="entropy = 0.0000\nsamples = 2\nvalue = [ 0.  2.  0.  0.  0.  0.  0.  0.  0.  0.  0.  0.  0.]", shape="box"] ;
113 -> 121 ;
122 [label="entropy = 0.0000\nsamples = 4\nvalue = [ 0.  4.  0.  0.  0.  0.  0.  0.  0.  0.  0.  0.  0.]", shape="box"] ;
112 -> 122 ;
123 [label="entropy = 0.0000\nsamples = 4\nvalue = [ 0.  4.  0.  0.  0.  0.  0.  0.  0.  0.  0.  0.  0.]", shape="box"] ;
111 -> 123 ;
124 [label="entropy = 0.0000\nsamples = 4\nvalue = [ 4.  0.  0.  0.  0.  0.  0.  0.  0.  0.  0.  0.  0.]", shape="box"] ;
110 -> 124 ;
125 [label="X[3] <= 7.5000\nentropy = 0.650246858184\nsamples = 58", shape="box"] ;
3 -> 125 ;
126 [label="entropy = 0.0000\nsamples = 51\nvalue = [  0.   0.   0.   0.   0.   0.   0.   0.   0.  51.   0.   0.   0.]", shape="box"] ;
125 -> 126 ;
127 [label="X[2] <= 2.0000\nentropy = 0.985228136034\nsamples = 7", shape="box"] ;
125 -> 127 ;
128 [label="entropy = 0.0000\nsamples = 4\nvalue = [ 0.  4.  0.  0.  0.  0.  0.  0.  0.  0.  0.  0.  0.]", shape="box"] ;
127 -> 128 ;
129 [label="entropy = 0.0000\nsamples = 3\nvalue = [ 0.  0.  3.  0.  0.  0.  0.  0.  0.  0.  0.  0.  0.]", shape="box"] ;
127 -> 129 ;
130 [label="X[19] <= 1.9626\nentropy = 0.918295834054\nsamples = 153", shape="box"] ;
2 -> 130 ;
131 [label="entropy = 0.0000\nsamples = 102\nvalue = [   0.    0.    0.    0.    0.    0.    0.    0.  102.    0.    0.    0.
    0.]", shape="box"] ;
130 -> 131 ;
132 [label="entropy = 0.0000\nsamples = 51\nvalue = [  0.   0.   0.   0.   0.   0.  51.   0.   0.   0.   0.   0.   0.]", shape="box"] ;
130 -> 132 ;
133 [label="X[19] <= 2.3412\nentropy = 0.363333054272\nsamples = 644", shape="box"] ;
1 -> 133 ;
134 [label="entropy = 0.0000\nsamples = 612\nvalue = [   0.    0.    0.  612.    0.    0.    0.    0.    0.    0.    0.    0.
    0.]", shape="box"] ;
133 -> 134 ;
135 [label="X[3] <= 10.0058\nentropy = 1.57491803667\nsamples = 32", shape="box"] ;
133 -> 135 ;
136 [label="X[17] <= 43.8967\nentropy = 0.997502546369\nsamples = 17", shape="box"] ;
135 -> 136 ;
137 [label="X[6] <= 2.3634\nentropy = 0.845350936622\nsamples = 11", shape="box"] ;
136 -> 137 ;
138 [label="entropy = 0.0000\nsamples = 6\nvalue = [ 0.  6.  0.  0.  0.  0.  0.  0.  0.  0.  0.  0.  0.]", shape="box"] ;
137 -> 138 ;
139 [label="X[2] <= 1.0000\nentropy = 0.970950594455\nsamples = 5", shape="box"] ;
137 -> 139 ;
140 [label="entropy = 0.0000\nsamples = 3\nvalue = [ 3.  0.  0.  0.  0.  0.  0.  0.  0.  0.  0.  0.  0.]", shape="box"] ;
139 -> 140 ;
141 [label="entropy = 0.0000\nsamples = 2\nvalue = [ 0.  2.  0.  0.  0.  0.  0.  0.  0.  0.  0.  0.  0.]", shape="box"] ;
139 -> 141 ;
142 [label="entropy = 0.0000\nsamples = 6\nvalue = [ 6.  0.  0.  0.  0.  0.  0.  0.  0.  0.  0.  0.  0.]", shape="box"] ;
136 -> 142 ;
143 [label="X[14] <= 0.3356\nentropy = 0.721928094887\nsamples = 15", shape="box"] ;
135 -> 143 ;
144 [label="entropy = 0.0000\nsamples = 12\nvalue = [  0.   0.  12.   0.   0.   0.   0.   0.   0.   0.   0.   0.   0.]", shape="box"] ;
143 -> 144 ;
145 [label="entropy = 0.0000\nsamples = 3\nvalue = [ 0.  3.  0.  0.  0.  0.  0.  0.  0.  0.  0.  0.  0.]", shape="box"] ;
143 -> 145 ;
146 [label="X[13] <= 0.3158\nentropy = 2.17485440531\nsamples = 773", shape="box"] ;
0 -> 146 ;
147 [label="X[14] <= 0.2163\nentropy = 1.6627600775\nsamples = 415", shape="box"] ;
146 -> 147 ;
148 [label="X[14] <= 0.0999\nentropy = 1.81795331474\nsamples = 160", shape="box"] ;
147 -> 148 ;
149 [label="X[7] <= 41.0000\nentropy = 1.0\nsamples = 102", shape="box"] ;
148 -> 149 ;
150 [label="entropy = 0.0000\nsamples = 51\nvalue = [  0.   0.   0.   0.   0.   0.   0.   0.   0.   0.  51.   0.   0.]", shape="box"] ;
149 -> 150 ;
151 [label="entropy = 0.0000\nsamples = 51\nvalue = [  0.   0.   0.   0.   0.   0.   0.   0.   0.   0.   0.  51.   0.]", shape="box"] ;
149 -> 151 ;
152 [label="X[8] <= 15.5000\nentropy = 0.650246858184\nsamples = 58", shape="box"] ;
148 -> 152 ;
153 [label="entropy = 0.0000\nsamples = 51\nvalue = [  0.   0.   0.   0.   0.   0.   0.   0.   0.   0.   0.   0.  51.]", shape="box"] ;
152 -> 153 ;
154 [label="X[8] <= 55.3400\nentropy = 0.985228136034\nsamples = 7", shape="box"] ;
152 -> 154 ;
155 [label="entropy = 0.0000\nsamples = 3\nvalue = [ 0.  3.  0.  0.  0.  0.  0.  0.  0.  0.  0.  0.  0.]", shape="box"] ;
154 -> 155 ;
156 [label="entropy = 0.0000\nsamples = 4\nvalue = [ 0.  0.  4.  0.  0.  0.  0.  0.  0.  0.  0.  0.  0.]", shape="box"] ;
154 -> 156 ;
157 [label="entropy = 0.0000\nsamples = 255\nvalue = [   0.    0.    0.    0.    0.  255.    0.    0.    0.    0.    0.    0.
    0.]", shape="box"] ;
147 -> 157 ;
158 [label="X[9] <= 0.7724\nentropy = 0.617742111609\nsamples = 358", shape="box"] ;
146 -> 158 ;
159 [label="entropy = 0.0000\nsamples = 306\nvalue = [   0.    0.    0.    0.  306.    0.    0.    0.    0.    0.    0.    0.
    0.]", shape="box"] ;
158 -> 159 ;
160 [label="X[15] <= 1.5651\nentropy = 0.1370994789\nsamples = 52", shape="box"] ;
158 -> 160 ;
161 [label="entropy = 0.0000\nsamples = 1\nvalue = [ 1.  0.  0.  0.  0.  0.  0.  0.  0.  0.  0.  0.  0.]", shape="box"] ;
160 -> 161 ;
162 [label="entropy = 0.0000\nsamples = 51\nvalue = [  0.   0.   0.   0.   0.   0.   0.  51.   0.   0.   0.   0.   0.]", shape="box"] ;
160 -> 162 ;
}